{"levels": [{"inputs": [0, 0, 0.18600000000000272, 0, 0], "outputs": [0, 0, 1, 0, 0, 0], "biases": [0.21803997262471198, 0.2563780578953374, -0.3056643469604474, -0.127755482171086, 0.6261456656033837, 0.9649482247728693], "weights": [[-0.9740695186576014, -0.5626563401473723, 0.4302302162300229, -0.9400021104905729, 0.5360109007569573, 0.09693758896446392], [0.5137854747173274, 0.8457032397800928, 0.5722781846053588, -0.5938393591703688, -0.14944327115841882, -0.35330954581151297], [-0.7369470847525466, -0.13072038811745323, -0.9720177615251524, -0.8183082818701404, -0.017726021621506494, -0.19267465772190473], [0.658113783215045, 0.13727157844291682, -0.7886071192518942, 0.10214371555778934, -0.30332803132927144, -0.8481564605276628], [0.9721726744047439, -0.23756731526736852, 0.5007748245828691, -0.01116316870297629, -0.4595780589347249, 0.9913718163562686]]}, {"inputs": [0, 0, 1, 0, 0, 0], "outputs": [1, 1, 1, 1], "biases": [-0.9660700063167291, 0.31585056189195604, -0.24040962332429605, -0.6004182937875644], "weights": [[-0.43057179426300296, -0.5190404564901399, 0.6358061214880952, -0.6375368474937322], [0.13021323771601745, -0.8139846452710393, -0.459625357840012, 0.03910123856748404], [0.1616141180357531, 0.4082460175287459, 0.8654155093964084, -0.47549076488789255], [0.049942323516177556, 0.26152236751715296, -0.5747335011264278, -0.3940194963589101], [0.5421660129035537, -0.13544335843085142, -0.48014942458234144, -0.9739722607669907], [0.7276195659632922, 0.8856593360205431, -0.5149101026662761, -0.4977769890523249]]}]}